digraph Tree {
node [shape=box] ;
0 [label="cmp_lname_c1 <= 0.92\ngini = 0.007\nsamples = 1724739\nvalue = [1718460, 6279]"] ;
1 [label="cmp_lname_c1 <= 0.894\ngini = 0.0\nsamples = 1504566\nvalue = [1504517, 49]"] ;
0 -> 1 [labeldistance=2.5, labelangle=45, headlabel="True"] ;
2 [label="cmp_lname_c1 <= 0.866\ngini = 0.0\nsamples = 1503787\nvalue = [1503746, 41]"] ;
1 -> 2 ;
3 [label="id_2 <= 1058.5\ngini = 0.0\nsamples = 1491543\nvalue = [1491514, 29]"] ;
2 -> 3 ;
4 [label="id_2 <= 1053.5\ngini = 0.011\nsamples = 174\nvalue = [173, 1]"] ;
3 -> 4 ;
5 [label="gini = 0.0\nsamples = 173\nvalue = [173, 0]"] ;
4 -> 5 ;
6 [label="gini = 0.0\nsamples = 1\nvalue = [0, 1]"] ;
4 -> 6 ;
7 [label="cmp_lname_c1 <= 0.739\ngini = 0.0\nsamples = 1491369\nvalue = [1491341, 28]"] ;
3 -> 7 ;
8 [label="cmp_bd <= 0.516\ngini = 0.0\nsamples = 1411204\nvalue = [1411192, 12]"] ;
7 -> 8 ;
9 [label="gini = 0.0\nsamples = 1040143\nvalue = [1040143, 0]"] ;
8 -> 9 ;
10 [label="cmp_lname_c1 <= 0.707\ngini = 0.0\nsamples = 371061\nvalue = [371049, 12]"] ;
8 -> 10 ;
11 [label="cmp_bm <= 0.5\ngini = 0.0\nsamples = 370455\nvalue = [370444, 11]"] ;
10 -> 11 ;
12 [label="gini = 0.0\nsamples = 254361\nvalue = [254361, 0]"] ;
11 -> 12 ;
13 [label="cmp_fname_c1 <= 0.955\ngini = 0.0\nsamples = 116094\nvalue = [116083, 11]"] ;
11 -> 13 ;
14 [label="id_1 <= 10996.5\ngini = 0.0\nsamples = 95908\nvalue = [95907, 1]"] ;
13 -> 14 ;
15 [label="id_1 <= 10995.0\ngini = 0.0\nsamples = 19380\nvalue = [19379, 1]"] ;
14 -> 15 ;
16 [label="gini = 0.0\nsamples = 19378\nvalue = [19378, 0]"] ;
15 -> 16 ;
17 [label="cmp_fname_c1 <= 0.125\ngini = 0.5\nsamples = 2\nvalue = [1, 1]"] ;
15 -> 17 ;
18 [label="gini = 0.0\nsamples = 1\nvalue = [1, 0]"] ;
17 -> 18 ;
19 [label="gini = 0.0\nsamples = 1\nvalue = [0, 1]"] ;
17 -> 19 ;
20 [label="gini = 0.0\nsamples = 76528\nvalue = [76528, 0]"] ;
14 -> 20 ;
21 [label="id_1 <= 91358.5\ngini = 0.001\nsamples = 20186\nvalue = [20176, 10]"] ;
13 -> 21 ;
22 [label="id_2 <= 9729.0\ngini = 0.001\nsamples = 20044\nvalue = [20035, 9]"] ;
21 -> 22 ;
23 [label="id_2 <= 9719.5\ngini = 0.011\nsamples = 186\nvalue = [185, 1]"] ;
22 -> 23 ;
24 [label="gini = 0.0\nsamples = 185\nvalue = [185, 0]"] ;
23 -> 24 ;
25 [label="gini = 0.0\nsamples = 1\nvalue = [0, 1]"] ;
23 -> 25 ;
26 [label="id_2 <= 72182.5\ngini = 0.001\nsamples = 19858\nvalue = [19850, 8]"] ;
22 -> 26 ;
27 [label="id_2 <= 41110.5\ngini = 0.0\nsamples = 10502\nvalue = [10500, 2]"] ;
26 -> 27 ;
28 [label="id_2 <= 41106.0\ngini = 0.001\nsamples = 3293\nvalue = [3291, 2]"] ;
27 -> 28 ;
29 [label="id_1 <= 5237.5\ngini = 0.001\nsamples = 3292\nvalue = [3291, 1]"] ;
28 -> 29 ;
30 [label="id_1 <= 5228.5\ngini = 0.003\nsamples = 706\nvalue = [705, 1]"] ;
29 -> 30 ;
31 [label="gini = 0.0\nsamples = 705\nvalue = [705, 0]"] ;
30 -> 31 ;
32 [label="gini = 0.0\nsamples = 1\nvalue = [0, 1]"] ;
30 -> 32 ;
33 [label="gini = 0.0\nsamples = 2586\nvalue = [2586, 0]"] ;
29 -> 33 ;
34 [label="gini = 0.0\nsamples = 1\nvalue = [0, 1]"] ;
28 -> 34 ;
35 [label="gini = 0.0\nsamples = 7209\nvalue = [7209, 0]"] ;
27 -> 35 ;
36 [label="id_2 <= 72184.5\ngini = 0.001\nsamples = 9356\nvalue = [9350, 6]"] ;
26 -> 36 ;
37 [label="gini = 0.0\nsamples = 1\nvalue = [0, 1]"] ;
36 -> 37 ;
38 [label="id_2 <= 72286.5\ngini = 0.001\nsamples = 9355\nvalue = [9350, 5]"] ;
36 -> 38 ;
39 [label="id_2 <= 72282.0\ngini = 0.133\nsamples = 28\nvalue = [26, 2]"] ;
38 -> 39 ;
40 [label="id_1 <= 44177.0\ngini = 0.071\nsamples = 27\nvalue = [26, 1]"] ;
39 -> 40 ;
41 [label="gini = 0.0\nsamples = 17\nvalue = [17, 0]"] ;
40 -> 41 ;
42 [label="id_1 <= 46352.5\ngini = 0.18\nsamples = 10\nvalue = [9, 1]"] ;
40 -> 42 ;
43 [label="gini = 0.0\nsamples = 1\nvalue = [0, 1]"] ;
42 -> 43 ;
44 [label="gini = 0.0\nsamples = 9\nvalue = [9, 0]"] ;
42 -> 44 ;
45 [label="gini = 0.0\nsamples = 1\nvalue = [0, 1]"] ;
39 -> 45 ;
46 [label="id_2 <= 78051.0\ngini = 0.001\nsamples = 9327\nvalue = [9324, 3]"] ;
38 -> 46 ;
47 [label="id_2 <= 78045.0\ngini = 0.002\nsamples = 1727\nvalue = [1725, 2]"] ;
46 -> 47 ;
48 [label="cmp_lname_c1 <= 0.026\ngini = 0.001\nsamples = 1726\nvalue = [1725, 1]"] ;
47 -> 48 ;
49 [label="id_2 <= 74546.5\ngini = 0.004\nsamples = 461\nvalue = [460, 1]"] ;
48 -> 49 ;
50 [label="id_2 <= 74537.5\ngini = 0.012\nsamples = 167\nvalue = [166, 1]"] ;
49 -> 50 ;
51 [label="gini = 0.0\nsamples = 166\nvalue = [166, 0]"] ;
50 -> 51 ;
52 [label="gini = 0.0\nsamples = 1\nvalue = [0, 1]"] ;
50 -> 52 ;
53 [label="gini = 0.0\nsamples = 294\nvalue = [294, 0]"] ;
49 -> 53 ;
54 [label="gini = 0.0\nsamples = 1265\nvalue = [1265, 0]"] ;
48 -> 54 ;
55 [label="gini = 0.0\nsamples = 1\nvalue = [0, 1]"] ;
47 -> 55 ;
56 [label="id_1 <= 14917.5\ngini = 0.0\nsamples = 7600\nvalue = [7599, 1]"] ;
46 -> 56 ;
57 [label="id_1 <= 14908.0\ngini = 0.002\nsamples = 1326\nvalue = [1325, 1]"] ;
56 -> 57 ;
58 [label="gini = 0.0\nsamples = 1325\nvalue = [1325, 0]"] ;
57 -> 58 ;
59 [label="gini = 0.0\nsamples = 1\nvalue = [0, 1]"] ;
57 -> 59 ;
60 [label="gini = 0.0\nsamples = 6274\nvalue = [6274, 0]"] ;
56 -> 60 ;
61 [label="id_1 <= 91397.5\ngini = 0.014\nsamples = 142\nvalue = [141, 1]"] ;
21 -> 61 ;
62 [label="gini = 0.0\nsamples = 1\nvalue = [0, 1]"] ;
61 -> 62 ;
63 [label="gini = 0.0\nsamples = 141\nvalue = [141, 0]"] ;
61 -> 63 ;
64 [label="cmp_bm <= 0.5\ngini = 0.003\nsamples = 606\nvalue = [605, 1]"] ;
10 -> 64 ;
65 [label="gini = 0.0\nsamples = 519\nvalue = [519, 0]"] ;
64 -> 65 ;
66 [label="cmp_fname_c1 <= 0.944\ngini = 0.023\nsamples = 87\nvalue = [86, 1]"] ;
64 -> 66 ;
67 [label="gini = 0.0\nsamples = 68\nvalue = [68, 0]"] ;
66 -> 67 ;
68 [label="id_2 <= 69989.5\ngini = 0.1\nsamples = 19\nvalue = [18, 1]"] ;
66 -> 68 ;
69 [label="id_2 <= 68683.0\ngini = 0.219\nsamples = 8\nvalue = [7, 1]"] ;
68 -> 69 ;
70 [label="gini = 0.0\nsamples = 7\nvalue = [7, 0]"] ;
69 -> 70 ;
71 [label="gini = 0.0\nsamples = 1\nvalue = [0, 1]"] ;
69 -> 71 ;
72 [label="gini = 0.0\nsamples = 11\nvalue = [11, 0]"] ;
68 -> 72 ;
73 [label="cmp_fname_c1 <= 0.866\ngini = 0.0\nsamples = 80165\nvalue = [80149, 16]"] ;
7 -> 73 ;
74 [label="gini = 0.0\nsamples = 78410\nvalue = [78410, 0]"] ;
73 -> 74 ;
75 [label="cmp_bd <= 0.5\ngini = 0.018\nsamples = 1755\nvalue = [1739, 16]"] ;
73 -> 75 ;
76 [label="gini = 0.0\nsamples = 1564\nvalue = [1564, 0]"] ;
75 -> 76 ;
77 [label="cmp_bm <= 0.5\ngini = 0.154\nsamples = 191\nvalue = [175, 16]"] ;
75 -> 77 ;
78 [label="gini = 0.0\nsamples = 160\nvalue = [160, 0]"] ;
77 -> 78 ;
79 [label="id_2 <= 23628.5\ngini = 0.499\nsamples = 31\nvalue = [15, 16]"] ;
77 -> 79 ;
80 [label="gini = 0.0\nsamples = 4\nvalue = [0, 4]"] ;
79 -> 80 ;
81 [label="cmp_lname_c1 <= 0.789\ngini = 0.494\nsamples = 27\nvalue = [15, 12]"] ;
79 -> 81 ;
82 [label="id_1 <= 2033.5\ngini = 0.198\nsamples = 9\nvalue = [8, 1]"] ;
81 -> 82 ;
83 [label="gini = 0.0\nsamples = 1\nvalue = [0, 1]"] ;
82 -> 83 ;
84 [label="gini = 0.0\nsamples = 8\nvalue = [8, 0]"] ;
82 -> 84 ;
85 [label="id_2 <= 86885.5\ngini = 0.475\nsamples = 18\nvalue = [7, 11]"] ;
81 -> 85 ;
86 [label="id_1 <= 65854.0\ngini = 0.498\nsamples = 15\nvalue = [7, 8]"] ;
85 -> 86 ;
87 [label="id_1 <= 34991.5\ngini = 0.444\nsamples = 12\nvalue = [4, 8]"] ;
86 -> 87 ;
88 [label="id_2 <= 73792.5\ngini = 0.5\nsamples = 8\nvalue = [4, 4]"] ;
87 -> 88 ;
89 [label="id_1 <= 5135.5\ngini = 0.444\nsamples = 6\nvalue = [2, 4]"] ;
88 -> 89 ;
90 [label="gini = 0.0\nsamples = 1\nvalue = [1, 0]"] ;
89 -> 90 ;
91 [label="id_1 <= 31220.5\ngini = 0.32\nsamples = 5\nvalue = [1, 4]"] ;
89 -> 91 ;
92 [label="gini = 0.0\nsamples = 4\nvalue = [0, 4]"] ;
91 -> 92 ;
93 [label="gini = 0.0\nsamples = 1\nvalue = [1, 0]"] ;
91 -> 93 ;
94 [label="gini = 0.0\nsamples = 2\nvalue = [2, 0]"] ;
88 -> 94 ;
95 [label="gini = 0.0\nsamples = 4\nvalue = [0, 4]"] ;
87 -> 95 ;
96 [label="gini = 0.0\nsamples = 3\nvalue = [3, 0]"] ;
86 -> 96 ;
97 [label="gini = 0.0\nsamples = 3\nvalue = [0, 3]"] ;
85 -> 97 ;
98 [label="cmp_fname_c1 <= 0.817\ngini = 0.002\nsamples = 12244\nvalue = [12232, 12]"] ;
2 -> 98 ;
99 [label="id_2 <= 2414.0\ngini = 0.0\nsamples = 11995\nvalue = [11994, 1]"] ;
98 -> 99 ;
100 [label="cmp_bm <= 0.5\ngini = 0.198\nsamples = 9\nvalue = [8, 1]"] ;
99 -> 100 ;
101 [label="gini = 0.0\nsamples = 8\nvalue = [8, 0]"] ;
100 -> 101 ;
102 [label="gini = 0.0\nsamples = 1\nvalue = [0, 1]"] ;
100 -> 102 ;
103 [label="gini = 0.0\nsamples = 11986\nvalue = [11986, 0]"] ;
99 -> 103 ;
104 [label="cmp_bd <= 0.516\ngini = 0.084\nsamples = 249\nvalue = [238, 11]"] ;
98 -> 104 ;
105 [label="gini = 0.0\nsamples = 227\nvalue = [227, 0]"] ;
104 -> 105 ;
106 [label="cmp_bm <= 0.5\ngini = 0.5\nsamples = 22\nvalue = [11, 11]"] ;
104 -> 106 ;
107 [label="gini = 0.0\nsamples = 8\nvalue = [8, 0]"] ;
106 -> 107 ;
108 [label="id_1 <= 36791.0\ngini = 0.337\nsamples = 14\nvalue = [3, 11]"] ;
106 -> 108 ;
109 [label="gini = 0.0\nsamples = 8\nvalue = [0, 8]"] ;
108 -> 109 ;
110 [label="id_1 <= 40139.0\ngini = 0.5\nsamples = 6\nvalue = [3, 3]"] ;
108 -> 110 ;
111 [label="gini = 0.0\nsamples = 2\nvalue = [2, 0]"] ;
110 -> 111 ;
112 [label="cmp_sex <= 0.5\ngini = 0.375\nsamples = 4\nvalue = [1, 3]"] ;
110 -> 112 ;
113 [label="gini = 0.0\nsamples = 1\nvalue = [1, 0]"] ;
112 -> 113 ;
114 [label="gini = 0.0\nsamples = 3\nvalue = [0, 3]"] ;
112 -> 114 ;
115 [label="cmp_fname_c1 <= 0.938\ngini = 0.02\nsamples = 779\nvalue = [771, 8]"] ;
1 -> 115 ;
116 [label="gini = 0.0\nsamples = 760\nvalue = [760, 0]"] ;
115 -> 116 ;
117 [label="cmp_bm <= 0.5\ngini = 0.488\nsamples = 19\nvalue = [11, 8]"] ;
115 -> 117 ;
118 [label="gini = 0.0\nsamples = 10\nvalue = [10, 0]"] ;
117 -> 118 ;
119 [label="cmp_bd <= 0.5\ngini = 0.198\nsamples = 9\nvalue = [1, 8]"] ;
117 -> 119 ;
120 [label="gini = 0.0\nsamples = 1\nvalue = [1, 0]"] ;
119 -> 120 ;
121 [label="gini = 0.0\nsamples = 8\nvalue = [0, 8]"] ;
119 -> 121 ;
122 [label="cmp_fname_c1 <= 0.95\ngini = 0.055\nsamples = 220173\nvalue = [213943, 6230]"] ;
0 -> 122 [labeldistance=2.5, labelangle=-45, headlabel="False"] ;
123 [label="cmp_fname_c1 <= 0.789\ngini = 0.001\nsamples = 210921\nvalue = [210867, 54]"] ;
122 -> 123 ;
124 [label="id_2 <= 318.5\ngini = 0.0\nsamples = 210614\nvalue = [210596, 18]"] ;
123 -> 124 ;
125 [label="cmp_bd <= 0.5\ngini = 0.444\nsamples = 3\nvalue = [2, 1]"] ;
124 -> 125 ;
126 [label="gini = 0.0\nsamples = 2\nvalue = [2, 0]"] ;
125 -> 126 ;
127 [label="gini = 0.0\nsamples = 1\nvalue = [0, 1]"] ;
125 -> 127 ;
128 [label="cmp_bd <= 0.516\ngini = 0.0\nsamples = 210611\nvalue = [210594, 17]"] ;
124 -> 128 ;
129 [label="gini = 0.0\nsamples = 203667\nvalue = [203667, 0]"] ;
128 -> 129 ;
130 [label="cmp_fname_c1 <= 0.646\ngini = 0.005\nsamples = 6944\nvalue = [6927, 17]"] ;
128 -> 130 ;
131 [label="cmp_bm <= 0.5\ngini = 0.003\nsamples = 6908\nvalue = [6897, 11]"] ;
130 -> 131 ;
132 [label="gini = 0.0\nsamples = 6295\nvalue = [6295, 0]"] ;
131 -> 132 ;
133 [label="cmp_fname_c1 <= 0.437\ngini = 0.035\nsamples = 613\nvalue = [602, 11]"] ;
131 -> 133 ;
134 [label="id_2 <= 13235.0\ngini = 0.027\nsamples = 588\nvalue = [580, 8]"] ;
133 -> 134 ;
135 [label="id_2 <= 12643.0\ngini = 0.245\nsamples = 7\nvalue = [6, 1]"] ;
134 -> 135 ;
136 [label="gini = 0.0\nsamples = 6\nvalue = [6, 0]"] ;
135 -> 136 ;
137 [label="gini = 0.0\nsamples = 1\nvalue = [0, 1]"] ;
135 -> 137 ;
138 [label="cmp_fname_c1 <= 0.05\ngini = 0.024\nsamples = 581\nvalue = [574, 7]"] ;
134 -> 138 ;
139 [label="cmp_fname_c1 <= 0.0\ngini = 0.068\nsamples = 141\nvalue = [136, 5]"] ;
138 -> 139 ;
140 [label="id_1 <= 24281.5\ngini = 0.029\nsamples = 138\nvalue = [136, 2]"] ;
139 -> 140 ;
141 [label="id_1 <= 23572.0\ngini = 0.075\nsamples = 51\nvalue = [49, 2]"] ;
140 -> 141 ;
142 [label="gini = 0.0\nsamples = 49\nvalue = [49, 0]"] ;
141 -> 142 ;
143 [label="gini = 0.0\nsamples = 2\nvalue = [0, 2]"] ;
141 -> 143 ;
144 [label="gini = 0.0\nsamples = 87\nvalue = [87, 0]"] ;
140 -> 144 ;
145 [label="gini = 0.0\nsamples = 3\nvalue = [0, 3]"] ;
139 -> 145 ;
146 [label="cmp_sex <= 0.5\ngini = 0.009\nsamples = 440\nvalue = [438, 2]"] ;
138 -> 146 ;
147 [label="id_1 <= 21180.5\ngini = 0.117\nsamples = 16\nvalue = [15, 1]"] ;
146 -> 147 ;
148 [label="id_1 <= 16806.5\ngini = 0.32\nsamples = 5\nvalue = [4, 1]"] ;
147 -> 148 ;
149 [label="gini = 0.0\nsamples = 4\nvalue = [4, 0]"] ;
148 -> 149 ;
150 [label="gini = 0.0\nsamples = 1\nvalue = [0, 1]"] ;
148 -> 150 ;
151 [label="gini = 0.0\nsamples = 11\nvalue = [11, 0]"] ;
147 -> 151 ;
152 [label="cmp_fname_c1 <= 0.317\ngini = 0.005\nsamples = 424\nvalue = [423, 1]"] ;
146 -> 152 ;
153 [label="gini = 0.0\nsamples = 343\nvalue = [343, 0]"] ;
152 -> 153 ;
154 [label="id_1 <= 25108.5\ngini = 0.024\nsamples = 81\nvalue = [80, 1]"] ;
152 -> 154 ;
155 [label="id_1 <= 24490.0\ngini = 0.062\nsamples = 31\nvalue = [30, 1]"] ;
154 -> 155 ;
156 [label="gini = 0.0\nsamples = 30\nvalue = [30, 0]"] ;
155 -> 156 ;
157 [label="gini = 0.0\nsamples = 1\nvalue = [0, 1]"] ;
155 -> 157 ;
158 [label="gini = 0.0\nsamples = 50\nvalue = [50, 0]"] ;
154 -> 158 ;
159 [label="id_2 <= 17146.5\ngini = 0.211\nsamples = 25\nvalue = [22, 3]"] ;
133 -> 159 ;
160 [label="gini = 0.0\nsamples = 1\nvalue = [0, 1]"] ;
159 -> 160 ;
161 [label="id_1 <= 5554.5\ngini = 0.153\nsamples = 24\nvalue = [22, 2]"] ;
159 -> 161 ;
162 [label="id_1 <= 3308.5\ngini = 0.444\nsamples = 3\nvalue = [2, 1]"] ;
161 -> 162 ;
163 [label="gini = 0.0\nsamples = 2\nvalue = [2, 0]"] ;
162 -> 163 ;
164 [label="gini = 0.0\nsamples = 1\nvalue = [0, 1]"] ;
162 -> 164 ;
165 [label="id_1 <= 61017.5\ngini = 0.091\nsamples = 21\nvalue = [20, 1]"] ;
161 -> 165 ;
166 [label="gini = 0.0\nsamples = 18\nvalue = [18, 0]"] ;
165 -> 166 ;
167 [label="id_2 <= 75889.5\ngini = 0.444\nsamples = 3\nvalue = [2, 1]"] ;
165 -> 167 ;
168 [label="gini = 0.0\nsamples = 1\nvalue = [0, 1]"] ;
167 -> 168 ;
169 [label="gini = 0.0\nsamples = 2\nvalue = [2, 0]"] ;
167 -> 169 ;
170 [label="cmp_bm <= 0.5\ngini = 0.278\nsamples = 36\nvalue = [30, 6]"] ;
130 -> 170 ;
171 [label="gini = 0.0\nsamples = 25\nvalue = [25, 0]"] ;
170 -> 171 ;
172 [label="id_2 <= 85212.5\ngini = 0.496\nsamples = 11\nvalue = [5, 6]"] ;
170 -> 172 ;
173 [label="id_1 <= 3404.5\ngini = 0.469\nsamples = 8\nvalue = [5, 3]"] ;
172 -> 173 ;
174 [label="gini = 0.0\nsamples = 2\nvalue = [0, 2]"] ;
173 -> 174 ;
175 [label="id_1 <= 29053.5\ngini = 0.278\nsamples = 6\nvalue = [5, 1]"] ;
173 -> 175 ;
176 [label="gini = 0.0\nsamples = 4\nvalue = [4, 0]"] ;
175 -> 176 ;
177 [label="cmp_fname_c1 <= 0.722\ngini = 0.5\nsamples = 2\nvalue = [1, 1]"] ;
175 -> 177 ;
178 [label="gini = 0.0\nsamples = 1\nvalue = [0, 1]"] ;
177 -> 178 ;
179 [label="gini = 0.0\nsamples = 1\nvalue = [1, 0]"] ;
177 -> 179 ;
180 [label="gini = 0.0\nsamples = 3\nvalue = [0, 3]"] ;
172 -> 180 ;
181 [label="cmp_bd <= 0.5\ngini = 0.207\nsamples = 307\nvalue = [271, 36]"] ;
123 -> 181 ;
182 [label="gini = 0.0\nsamples = 262\nvalue = [262, 0]"] ;
181 -> 182 ;
183 [label="cmp_bm <= 0.5\ngini = 0.32\nsamples = 45\nvalue = [9, 36]"] ;
181 -> 183 ;
184 [label="gini = 0.0\nsamples = 8\nvalue = [8, 0]"] ;
183 -> 184 ;
185 [label="id_2 <= 83044.0\ngini = 0.053\nsamples = 37\nvalue = [1, 36]"] ;
183 -> 185 ;
186 [label="gini = 0.0\nsamples = 33\nvalue = [0, 33]"] ;
185 -> 186 ;
187 [label="id_1 <= 27156.0\ngini = 0.375\nsamples = 4\nvalue = [1, 3]"] ;
185 -> 187 ;
188 [label="gini = 0.0\nsamples = 1\nvalue = [1, 0]"] ;
187 -> 188 ;
189 [label="gini = 0.0\nsamples = 3\nvalue = [0, 3]"] ;
187 -> 189 ;
190 [label="cmp_bd <= 0.516\ngini = 0.444\nsamples = 9252\nvalue = [3076, 6176]"] ;
122 -> 190 ;
191 [label="id_2 <= 8810.5\ngini = 0.015\nsamples = 3007\nvalue = [2984, 23]"] ;
190 -> 191 ;
192 [label="cmp_bm <= 0.5\ngini = 0.42\nsamples = 20\nvalue = [14, 6]"] ;
191 -> 192 ;
193 [label="gini = 0.0\nsamples = 14\nvalue = [14, 0]"] ;
192 -> 193 ;
194 [label="gini = 0.0\nsamples = 6\nvalue = [0, 6]"] ;
192 -> 194 ;
195 [label="cmp_bm <= 0.042\ngini = 0.011\nsamples = 2987\nvalue = [2970, 17]"] ;
191 -> 195 ;
196 [label="id_2 <= 14598.5\ngini = 0.004\nsamples = 2698\nvalue = [2693, 5]"] ;
195 -> 196 ;
197 [label="id_2 <= 14585.0\ngini = 0.036\nsamples = 54\nvalue = [53, 1]"] ;
196 -> 197 ;
198 [label="gini = 0.0\nsamples = 53\nvalue = [53, 0]"] ;
197 -> 198 ;
199 [label="gini = 0.0\nsamples = 1\nvalue = [0, 1]"] ;
197 -> 199 ;
200 [label="id_1 <= 1450.5\ngini = 0.003\nsamples = 2644\nvalue = [2640, 4]"] ;
196 -> 200 ;
201 [label="id_1 <= 1375.5\ngini = 0.029\nsamples = 69\nvalue = [68, 1]"] ;
200 -> 201 ;
202 [label="gini = 0.0\nsamples = 68\nvalue = [68, 0]"] ;
201 -> 202 ;
203 [label="gini = 0.0\nsamples = 1\nvalue = [0, 1]"] ;
201 -> 203 ;
204 [label="id_1 <= 48101.5\ngini = 0.002\nsamples = 2575\nvalue = [2572, 3]"] ;
200 -> 204 ;
205 [label="gini = 0.0\nsamples = 1832\nvalue = [1832, 0]"] ;
204 -> 205 ;
206 [label="id_1 <= 48111.0\ngini = 0.008\nsamples = 743\nvalue = [740, 3]"] ;
204 -> 206 ;
207 [label="gini = 0.0\nsamples = 1\nvalue = [0, 1]"] ;
206 -> 207 ;
208 [label="id_2 <= 58810.5\ngini = 0.005\nsamples = 742\nvalue = [740, 2]"] ;
206 -> 208 ;
209 [label="id_2 <= 58406.5\ngini = 0.091\nsamples = 21\nvalue = [20, 1]"] ;
208 -> 209 ;
210 [label="gini = 0.0\nsamples = 20\nvalue = [20, 0]"] ;
209 -> 210 ;
211 [label="gini = 0.0\nsamples = 1\nvalue = [0, 1]"] ;
209 -> 211 ;
212 [label="id_2 <= 73732.0\ngini = 0.003\nsamples = 721\nvalue = [720, 1]"] ;
208 -> 212 ;
213 [label="id_2 <= 73579.5\ngini = 0.013\nsamples = 151\nvalue = [150, 1]"] ;
212 -> 213 ;
214 [label="gini = 0.0\nsamples = 150\nvalue = [150, 0]"] ;
213 -> 214 ;
215 [label="gini = 0.0\nsamples = 1\nvalue = [0, 1]"] ;
213 -> 215 ;
216 [label="gini = 0.0\nsamples = 570\nvalue = [570, 0]"] ;
212 -> 216 ;
217 [label="id_2 <= 12980.5\ngini = 0.08\nsamples = 289\nvalue = [277, 12]"] ;
195 -> 217 ;
218 [label="id_2 <= 12408.5\ngini = 0.5\nsamples = 2\nvalue = [1, 1]"] ;
217 -> 218 ;
219 [label="gini = 0.0\nsamples = 1\nvalue = [1, 0]"] ;
218 -> 219 ;
220 [label="gini = 0.0\nsamples = 1\nvalue = [0, 1]"] ;
218 -> 220 ;
221 [label="id_1 <= 50764.5\ngini = 0.074\nsamples = 287\nvalue = [276, 11]"] ;
217 -> 221 ;
222 [label="id_1 <= 13183.0\ngini = 0.038\nsamples = 209\nvalue = [205, 4]"] ;
221 -> 222 ;
223 [label="id_1 <= 13078.0\ngini = 0.101\nsamples = 75\nvalue = [71, 4]"] ;
222 -> 223 ;
224 [label="id_2 <= 77401.0\ngini = 0.078\nsamples = 74\nvalue = [71, 3]"] ;
223 -> 224 ;
225 [label="gini = 0.0\nsamples = 54\nvalue = [54, 0]"] ;
224 -> 225 ;
226 [label="id_2 <= 77891.0\ngini = 0.255\nsamples = 20\nvalue = [17, 3]"] ;
224 -> 226 ;
227 [label="gini = 0.0\nsamples = 1\nvalue = [0, 1]"] ;
226 -> 227 ;
228 [label="id_1 <= 4266.0\ngini = 0.188\nsamples = 19\nvalue = [17, 2]"] ;
226 -> 228 ;
229 [label="id_2 <= 81459.0\ngini = 0.5\nsamples = 2\nvalue = [1, 1]"] ;
228 -> 229 ;
230 [label="gini = 0.0\nsamples = 1\nvalue = [1, 0]"] ;
229 -> 230 ;
231 [label="gini = 0.0\nsamples = 1\nvalue = [0, 1]"] ;
229 -> 231 ;
232 [label="id_1 <= 10412.5\ngini = 0.111\nsamples = 17\nvalue = [16, 1]"] ;
228 -> 232 ;
233 [label="gini = 0.0\nsamples = 11\nvalue = [11, 0]"] ;
232 -> 233 ;
234 [label="id_1 <= 10966.0\ngini = 0.278\nsamples = 6\nvalue = [5, 1]"] ;
232 -> 234 ;
235 [label="gini = 0.0\nsamples = 1\nvalue = [0, 1]"] ;
234 -> 235 ;
236 [label="gini = 0.0\nsamples = 5\nvalue = [5, 0]"] ;
234 -> 236 ;
237 [label="gini = 0.0\nsamples = 1\nvalue = [0, 1]"] ;
223 -> 237 ;
238 [label="gini = 0.0\nsamples = 134\nvalue = [134, 0]"] ;
222 -> 238 ;
239 [label="id_1 <= 51928.5\ngini = 0.163\nsamples = 78\nvalue = [71, 7]"] ;
221 -> 239 ;
240 [label="gini = 0.0\nsamples = 3\nvalue = [0, 3]"] ;
239 -> 240 ;
241 [label="cmp_bm <= 0.542\ngini = 0.101\nsamples = 75\nvalue = [71, 4]"] ;
239 -> 241 ;
242 [label="id_2 <= 75274.5\ngini = 0.5\nsamples = 2\nvalue = [1, 1]"] ;
241 -> 242 ;
243 [label="gini = 0.0\nsamples = 1\nvalue = [0, 1]"] ;
242 -> 243 ;
244 [label="gini = 0.0\nsamples = 1\nvalue = [1, 0]"] ;
242 -> 244 ;
245 [label="id_1 <= 69685.0\ngini = 0.079\nsamples = 73\nvalue = [70, 3]"] ;
241 -> 245 ;
246 [label="gini = 0.0\nsamples = 41\nvalue = [41, 0]"] ;
245 -> 246 ;
247 [label="id_1 <= 70304.5\ngini = 0.17\nsamples = 32\nvalue = [29, 3]"] ;
245 -> 247 ;
248 [label="gini = 0.0\nsamples = 1\nvalue = [0, 1]"] ;
247 -> 248 ;
249 [label="id_2 <= 80889.0\ngini = 0.121\nsamples = 31\nvalue = [29, 2]"] ;
247 -> 249 ;
250 [label="id_1 <= 75048.5\ngini = 0.444\nsamples = 3\nvalue = [2, 1]"] ;
249 -> 250 ;
251 [label="gini = 0.0\nsamples = 2\nvalue = [2, 0]"] ;
250 -> 251 ;
252 [label="gini = 0.0\nsamples = 1\nvalue = [0, 1]"] ;
250 -> 252 ;
253 [label="id_1 <= 86381.0\ngini = 0.069\nsamples = 28\nvalue = [27, 1]"] ;
249 -> 253 ;
254 [label="gini = 0.0\nsamples = 23\nvalue = [23, 0]"] ;
253 -> 254 ;
255 [label="id_1 <= 87224.5\ngini = 0.32\nsamples = 5\nvalue = [4, 1]"] ;
253 -> 255 ;
256 [label="gini = 0.0\nsamples = 1\nvalue = [0, 1]"] ;
255 -> 256 ;
257 [label="gini = 0.0\nsamples = 4\nvalue = [4, 0]"] ;
255 -> 257 ;
258 [label="cmp_bm <= 0.5\ngini = 0.029\nsamples = 6245\nvalue = [92, 6153]"] ;
190 -> 258 ;
259 [label="id_2 <= 70478.5\ngini = 0.159\nsamples = 92\nvalue = [84, 8]"] ;
258 -> 259 ;
260 [label="id_2 <= 68738.0\ngini = 0.278\nsamples = 48\nvalue = [40, 8]"] ;
259 -> 260 ;
261 [label="id_1 <= 35765.5\ngini = 0.201\nsamples = 44\nvalue = [39, 5]"] ;
260 -> 261 ;
262 [label="id_1 <= 1432.0\ngini = 0.117\nsamples = 32\nvalue = [30, 2]"] ;
261 -> 262 ;
263 [label="id_2 <= 52701.5\ngini = 0.444\nsamples = 3\nvalue = [2, 1]"] ;
262 -> 263 ;
264 [label="gini = 0.0\nsamples = 1\nvalue = [0, 1]"] ;
263 -> 264 ;
265 [label="gini = 0.0\nsamples = 2\nvalue = [2, 0]"] ;
263 -> 265 ;
266 [label="id_2 <= 41514.5\ngini = 0.067\nsamples = 29\nvalue = [28, 1]"] ;
262 -> 266 ;
267 [label="id_2 <= 38274.5\ngini = 0.165\nsamples = 11\nvalue = [10, 1]"] ;
266 -> 267 ;
268 [label="gini = 0.0\nsamples = 10\nvalue = [10, 0]"] ;
267 -> 268 ;
269 [label="gini = 0.0\nsamples = 1\nvalue = [0, 1]"] ;
267 -> 269 ;
270 [label="gini = 0.0\nsamples = 18\nvalue = [18, 0]"] ;
266 -> 270 ;
271 [label="id_1 <= 39327.0\ngini = 0.375\nsamples = 12\nvalue = [9, 3]"] ;
261 -> 271 ;
272 [label="gini = 0.0\nsamples = 2\nvalue = [0, 2]"] ;
271 -> 272 ;
273 [label="id_2 <= 52855.5\ngini = 0.18\nsamples = 10\nvalue = [9, 1]"] ;
271 -> 273 ;
274 [label="id_1 <= 47024.5\ngini = 0.444\nsamples = 3\nvalue = [2, 1]"] ;
273 -> 274 ;
275 [label="gini = 0.0\nsamples = 2\nvalue = [2, 0]"] ;
274 -> 275 ;
276 [label="gini = 0.0\nsamples = 1\nvalue = [0, 1]"] ;
274 -> 276 ;
277 [label="gini = 0.0\nsamples = 7\nvalue = [7, 0]"] ;
273 -> 277 ;
278 [label="id_1 <= 62292.0\ngini = 0.375\nsamples = 4\nvalue = [1, 3]"] ;
260 -> 278 ;
279 [label="gini = 0.0\nsamples = 3\nvalue = [0, 3]"] ;
278 -> 279 ;
280 [label="gini = 0.0\nsamples = 1\nvalue = [1, 0]"] ;
278 -> 280 ;
281 [label="gini = 0.0\nsamples = 44\nvalue = [44, 0]"] ;
259 -> 281 ;
282 [label="id_2 <= 43896.0\ngini = 0.003\nsamples = 6153\nvalue = [8, 6145]"] ;
258 -> 282 ;
283 [label="gini = 0.0\nsamples = 2604\nvalue = [0, 2604]"] ;
282 -> 283 ;
284 [label="id_2 <= 43899.5\ngini = 0.004\nsamples = 3549\nvalue = [8, 3541]"] ;
282 -> 284 ;
285 [label="gini = 0.0\nsamples = 1\nvalue = [1, 0]"] ;
284 -> 285 ;
286 [label="id_1 <= 14500.0\ngini = 0.004\nsamples = 3548\nvalue = [7, 3541]"] ;
284 -> 286 ;
287 [label="id_1 <= 14359.0\ngini = 0.013\nsamples = 314\nvalue = [2, 312]"] ;
286 -> 287 ;
288 [label="id_2 <= 58946.0\ngini = 0.006\nsamples = 313\nvalue = [1, 312]"] ;
287 -> 288 ;
289 [label="id_2 <= 58843.0\ngini = 0.067\nsamples = 29\nvalue = [1, 28]"] ;
288 -> 289 ;
290 [label="gini = 0.0\nsamples = 28\nvalue = [0, 28]"] ;
289 -> 290 ;
291 [label="gini = 0.0\nsamples = 1\nvalue = [1, 0]"] ;
289 -> 291 ;
292 [label="gini = 0.0\nsamples = 284\nvalue = [0, 284]"] ;
288 -> 292 ;
293 [label="gini = 0.0\nsamples = 1\nvalue = [1, 0]"] ;
287 -> 293 ;
294 [label="id_2 <= 75776.5\ngini = 0.003\nsamples = 3234\nvalue = [5, 3229]"] ;
286 -> 294 ;
295 [label="id_1 <= 26240.0\ngini = 0.001\nsamples = 2208\nvalue = [1, 2207]"] ;
294 -> 295 ;
296 [label="id_1 <= 26217.0\ngini = 0.004\nsamples = 454\nvalue = [1, 453]"] ;
295 -> 296 ;
297 [label="gini = 0.0\nsamples = 453\nvalue = [0, 453]"] ;
296 -> 297 ;
298 [label="gini = 0.0\nsamples = 1\nvalue = [1, 0]"] ;
296 -> 298 ;
299 [label="gini = 0.0\nsamples = 1754\nvalue = [0, 1754]"] ;
295 -> 299 ;
300 [label="id_2 <= 75802.5\ngini = 0.008\nsamples = 1026\nvalue = [4, 1022]"] ;
294 -> 300 ;
301 [label="gini = 0.0\nsamples = 1\nvalue = [1, 0]"] ;
300 -> 301 ;
302 [label="id_2 <= 81835.0\ngini = 0.006\nsamples = 1025\nvalue = [3, 1022]"] ;
300 -> 302 ;
303 [label="id_2 <= 81824.5\ngini = 0.019\nsamples = 306\nvalue = [3, 303]"] ;
302 -> 303 ;
304 [label="id_2 <= 80171.0\ngini = 0.013\nsamples = 305\nvalue = [2, 303]"] ;
303 -> 304 ;
305 [label="gini = 0.0\nsamples = 224\nvalue = [0, 224]"] ;
304 -> 305 ;
306 [label="id_2 <= 80239.5\ngini = 0.048\nsamples = 81\nvalue = [2, 79]"] ;
304 -> 306 ;
307 [label="id_1 <= 37453.0\ngini = 0.444\nsamples = 3\nvalue = [2, 1]"] ;
306 -> 307 ;
308 [label="gini = 0.0\nsamples = 1\nvalue = [0, 1]"] ;
307 -> 308 ;
309 [label="gini = 0.0\nsamples = 2\nvalue = [2, 0]"] ;
307 -> 309 ;
310 [label="gini = 0.0\nsamples = 78\nvalue = [0, 78]"] ;
306 -> 310 ;
311 [label="gini = 0.0\nsamples = 1\nvalue = [1, 0]"] ;
303 -> 311 ;
312 [label="gini = 0.0\nsamples = 719\nvalue = [0, 719]"] ;
302 -> 312 ;
}